#include "model_weights.h"

// --- Quantized Model Weights and Biases (Definitions) ---

// Weight: net.0.weight (Shape: [32, 26] -> Flattened Size: 832)
const int8_t net_0_weight[832] = {
  31,
  104,
  -104,
  -73,
  -18,
  52,
  19,
  127,
  18,
  52,
  -10,
  -10,
  -89,
  -88,
  -41,
  6,
  72,
  90,
  -70,
  -49,
  61,
  0,
  -25,
  110,
  -21,
  58,
  118,
  -98,
  5,
  6,
  -41,
  126,
  -40,
  -93,
  -128,
  -73,
  -124,
  19,
  -20,
  96,
  27,
  -82,
  24,
  -126,
  -28,
  7,
  76,
  0,
  10,
  7,
  127,
  99,
  59,
  25,
  57,
  -79,
  30,
  -121,
  -106,
  -71,
  78,
  33,
  -79,
  50,
  60,
  -34,
  12,
  -5,
  69,
  127,
  -93,
  -57,
  58,
  0,
  110,
  111,
  -3,
  -107,
  25,
  -64,
  -110,
  126,
  108,
  -116,
  37,
  -10,
  -9,
  -44,
  62,
  -65,
  59,
  75,
  100,
  59,
  -113,
  -70,
  72,
  34,
  -83,
  0,
  127,
  95,
  -51,
  -17,
  0,
  0,
  0,
  0,
  0,
  0,
  0,
  0,
  0,
  0,
  0,
  0,
  0,
  0,
  0,
  0,
  0,
  0,
  0,
  0,
  0,
  0,
  0,
  0,
  0,
  0,
  -29,
  23,
  -87,
  -9,
  87,
  -30,
  -4,
  -23,
  15,
  71,
  113,
  68,
  108,
  -20,
  -110,
  -70,
  82,
  -7,
  -46,
  -98,
  -128,
  0,
  -31,
  51,
  59,
  -122,
  86,
  -91,
  -55,
  -55,
  -16,
  -32,
  -119,
  -74,
  18,
  -7,
  -27,
  55,
  -87,
  -9,
  126,
  -45,
  126,
  51,
  -128,
  96,
  18,
  0,
  112,
  -60,
  -30,
  -10,
  119,
  61,
  57,
  65,
  -9,
  -27,
  -94,
  83,
  124,
  103,
  -76,
  24,
  -72,
  -62,
  -66,
  50,
  -65,
  4,
  35,
  93,
  -79,
  0,
  -69,
  103,
  -59,
  127,
  39,
  7,
  -14,
  -41,
  7,
  -38,
  -17,
  8,
  -117,
  -87,
  101,
  -126,
  -25,
  124,
  34,
  -11,
  -127,
  55,
  -112,
  -45,
  -52,
  0,
  -7,
  102,
  2,
  112,
  67,
  -87,
  47,
  -97,
  -62,
  28,
  31,
  85,
  -46,
  -10,
  56,
  -127,
  77,
  -113,
  -2,
  -35,
  -76,
  10,
  94,
  -43,
  -85,
  0,
  -125,
  49,
  -72,
  -91,
  -77,
  69,
  35,
  90,
  44,
  -59,
  -48,
  21,
  122,
  13,
  -87,
  -51,
  -22,
  -24,
  -101,
  -128,
  106,
  -101,
  -28,
  48,
  -5,
  0,
  -89,
  89,
  7,
  98,
  -65,
  35,
  -47,
  -15,
  -108,
  42,
  42,
  -17,
  -41,
  -107,
  96,
  -120,
  57,
  -10,
  -85,
  20,
  -23,
  24,
  21,
  -49,
  15,
  0,
  52,
  -33,
  -126,
  -37,
  27,
  -64,
  26,
  69,
  -85,
  -22,
  36,
  -24,
  -5,
  -3,
  -128,
  -3,
  75,
  80,
  58,
  -6,
  32,
  -87,
  -111,
  -128,
  106,
  0,
  -111,
  22,
  76,
  110,
  127,
  113,
  -25,
  -28,
  118,
  75,
  -60,
  120,
  74,
  78,
  -60,
  41,
  -27,
  99,
  -12,
  54,
  29,
  59,
  -29,
  63,
  -73,
  0,
  -80,
  -114,
  -99,
  122,
  83,
  122,
  115,
  -85,
  -59,
  1,
  -46,
  111,
  -67,
  -24,
  -81,
  -46,
  121,
  126,
  105,
  127,
  122,
  -4,
  59,
  127,
  76,
  0,
  89,
  102,
  -31,
  73,
  -9,
  -58,
  -93,
  -101,
  -128,
  71,
  81,
  -35,
  -102,
  92,
  62,
  4,
  -88,
  120,
  46,
  -117,
  112,
  90,
  -40,
  64,
  -98,
  0,
  106,
  -17,
  -112,
  -82,
  -43,
  -32,
  6,
  115,
  0,
  -86,
  -1,
  55,
  58,
  -127,
  -31,
  -100,
  -62,
  40,
  -99,
  41,
  105,
  3,
  -64,
  -51,
  20,
  0,
  62,
  -121,
  -125,
  -113,
  -38,
  69,
  -126,
  88,
  -63,
  23,
  -5,
  -120,
  89,
  55,
  110,
  48,
  -91,
  95,
  -7,
  50,
  -104,
  -47,
  -127,
  -59,
  14,
  0,
  27,
  55,
  5,
  -96,
  -84,
  -24,
  61,
  127,
  87,
  -11,
  62,
  -122,
  -95,
  77,
  -58,
  72,
  -75,
  -48,
  -92,
  82,
  -9,
  108,
  93,
  75,
  21,
  0,
  -22,
  28,
  63,
  -77,
  98,
  -30,
  -128,
  -91,
  105,
  108,
  -122,
  86,
  56,
  67,
  103,
  -94,
  28,
  38,
  -58,
  35,
  -52,
  69,
  -59,
  -64,
  25,
  0,
  -81,
  2,
  61,
  -25,
  -13,
  -29,
  -6,
  -90,
  -1,
  -51,
  74,
  -37,
  -20,
  -2,
  125,
  112,
  0,
  -50,
  -1,
  0,
  -19,
  -94,
  0,
  -17,
  -41,
  0,
  -19,
  -72,
  -25,
  60,
  -70,
  17,
  -27,
  127,
  -102,
  -97,
  127,
  -63,
  35,
  3,
  -10,
  -17,
  90,
  4,
  -100,
  -60,
  -37,
  77,
  -76,
  126,
  -19,
  0,
  104,
  71,
  118,
  88,
  -22,
  -65,
  -9,
  113,
  -28,
  -109,
  63,
  102,
  -19,
  -88,
  -98,
  40,
  7,
  -57,
  33,
  56,
  99,
  101,
  -5,
  -106,
  -96,
  0,
  54,
  60,
  -111,
  127,
  121,
  119,
  -78,
  -11,
  -46,
  106,
  -15,
  -23,
  91,
  -18,
  -27,
  16,
  22,
  -40,
  116,
  -8,
  84,
  120,
  88,
  51,
  126,
  0,
  -9,
  127,
  46,
  -91,
  -34,
  -86,
  115,
  -18,
  -128,
  3,
  84,
  26,
  40,
  12,
  36,
  -27,
  -45,
  -125,
  -97,
  60,
  -88,
  13,
  38,
  5,
  -85,
  0,
  -69,
  106,
  -97,
  -26,
  45,
  -72,
  82,
  -107,
  -124,
  -75,
  -4,
  93,
  -75,
  20,
  -50,
  -43,
  66,
  -106,
  -6,
  91,
  -27,
  76,
  -53,
  77,
  -128,
  0,
  -43,
  24,
  27,
  74,
  -2,
  11,
  117,
  -11,
  122,
  -49,
  8,
  23,
  68,
  107,
  2,
  -80,
  88,
  59,
  82,
  -55,
  110,
  127,
  23,
  -89,
  98,
  0,
  57,
  39,
  -23,
  55,
  0,
  0,
  0,
  0,
  0,
  0,
  0,
  0,
  0,
  0,
  0,
  0,
  0,
  0,
  0,
  0,
  0,
  0,
  0,
  0,
  0,
  0,
  0,
  0,
  0,
  0,
  104,
  -47,
  -21,
  123,
  -8,
  21,
  -76,
  116,
  5,
  -82,
  58,
  -79,
  -84,
  25,
  119,
  -24,
  80,
  105,
  110,
  -55,
  7,
  0,
  -93,
  15,
  103,
  127,
  33,
  49,
  -24,
  111,
  -25,
  -50,
  43,
  97,
  -84,
  127,
  75,
  -68,
  2,
  101,
  -60,
  -13,
  50,
  -74,
  72,
  74,
  85,
  0,
  109,
  -53,
  127,
  -78,
  -43,
  125,
  -29,
  45,
  -13,
  -72,
  -13,
  -86,
  51,
  28,
  61,
  68,
  109,
  11,
  -5,
  -103,
  -105,
  -107,
  15,
  -53,
  82,
  0,
  74,
  -75,
  -48,
  127,
  127,
  -49,
  19,
  28,
  -37,
  -36,
  40,
  -77,
  34,
  55,
  -36,
  101,
  11,
  24,
  127,
  -36,
  54,
  -31,
  -3,
  -21,
  8,
  0,
  23,
  3,
  70,
  2
};

// Bias: net.0.bias (Shape: [32] -> Flattened Size: 32)
const float net_0_bias[32] = {
  0.06590433f,
  -0.05315892f,
  -0.15410322f,
  0.10083976f,
  -0.00000000f,
  -0.08335817f,
  -0.05502651f,
  0.08624998f,
  -0.05062383f,
  0.11385583f,
  0.00496813f,
  0.05910601f,
  0.05887512f,
  -0.01927921f,
  0.11839872f,
  0.10980383f,
  -0.00136368f,
  0.01679819f,
  0.03033144f,
  0.11385542f,
  -0.04502191f,
  -0.08513797f,
  0.10959738f,
  -0.11022720f,
  0.00241910f,
  -0.12439927f,
  0.15515089f,
  -0.00000000f,
  0.15188695f,
  0.23149648f,
  0.13837926f,
  0.01508836f
};

// Weight: net.2.weight (Shape: [16, 32] -> Flattened Size: 512)
const int8_t net_2_weight[512] = {
  127,
  -63,
  -6,
  -37,
  0,
  27,
  0,
  -9,
  -88,
  9,
  17,
  18,
  87,
  107,
  -58,
  0,
  -33,
  -76,
  -77,
  106,
  9,
  50,
  55,
  -79,
  5,
  104,
  -48,
  0,
  36,
  72,
  15,
  52,
  -101,
  -23,
  38,
  51,
  0,
  113,
  116,
  86,
  98,
  -10,
  -65,
  -28,
  2,
  -52,
  62,
  49,
  25,
  51,
  108,
  59,
  -5,
  -85,
  53,
  22,
  51,
  -99,
  -97,
  0,
  80,
  -97,
  127,
  -83,
  67,
  11,
  96,
  -54,
  0,
  71,
  99,
  89,
  -2,
  -87,
  113,
  0,
  36,
  -61,
  -43,
  16,
  -50,
  20,
  -127,
  -117,
  -6,
  -17,
  -51,
  -28,
  -111,
  -92,
  79,
  0,
  20,
  -46,
  127,
  27,
  -101,
  15,
  97,
  -127,
  0,
  2,
  76,
  -88,
  16,
  73,
  23,
  19,
  106,
  63,
  -82,
  -3,
  52,
  93,
  -127,
  52,
  0,
  -127,
  10,
  -80,
  6,
  -88,
  -105,
  0,
  -56,
  56,
  1,
  79,
  9,
  -84,
  117,
  23,
  0,
  -47,
  -26,
  -25,
  21,
  -120,
  40,
  -68,
  -10,
  106,
  -113,
  -104,
  -30,
  -13,
  13,
  55,
  5,
  -128,
  -10,
  92,
  85,
  9,
  -83,
  0,
  110,
  -95,
  -7,
  81,
  -7,
  -31,
  -62,
  43,
  0,
  -8,
  109,
  3,
  -3,
  0,
  -4,
  0,
  -119,
  -42,
  -127,
  80,
  0,
  120,
  -43,
  -92,
  0,
  10,
  74,
  54,
  0,
  82,
  -39,
  0,
  77,
  93,
  -63,
  -22,
  111,
  32,
  107,
  -7,
  0,
  115,
  42,
  117,
  -35,
  -66,
  9,
  -89,
  63,
  110,
  46,
  2,
  60,
  -54,
  106,
  -92,
  -28,
  -12,
  124,
  37,
  46,
  -69,
  65,
  0,
  74,
  103,
  127,
  10,
  0,
  0,
  -35,
  84,
  0,
  60,
  0,
  -16,
  -2,
  0,
  0,
  0,
  -16,
  -30,
  110,
  103,
  0,
  55,
  0,
  -122,
  0,
  -1,
  -54,
  0,
  0,
  39,
  -125,
  0,
  10,
  -106,
  0,
  -54,
  -28,
  -54,
  -95,
  35,
  0,
  -7,
  -40,
  -74,
  35,
  -86,
  -42,
  0,
  43,
  124,
  -26,
  -24,
  -10,
  34,
  78,
  -86,
  0,
  46,
  -60,
  -57,
  37,
  -78,
  42,
  0,
  75,
  -81,
  127,
  -98,
  -114,
  -6,
  89,
  -118,
  0,
  100,
  -30,
  40,
  -127,
  -50,
  -75,
  92,
  41,
  -103,
  10,
  -11,
  -55,
  -82,
  -53,
  88,
  0,
  -99,
  -51,
  -10,
  18,
  -6,
  -41,
  0,
  -35,
  -61,
  92,
  -126,
  -85,
  -90,
  -37,
  81,
  0,
  -97,
  -18,
  58,
  44,
  93,
  -15,
  0,
  69,
  -58,
  50,
  -43,
  0,
  99,
  101,
  -127,
  0,
  -68,
  -94,
  105,
  -11,
  -94,
  -71,
  0,
  38,
  -125,
  -119,
  -127,
  35,
  46,
  -72,
  36,
  0,
  18,
  -33,
  12,
  -3,
  48,
  -75,
  0,
  80,
  -69,
  108,
  127,
  0,
  -20,
  64,
  -85,
  0,
  36,
  76,
  -99,
  -92,
  69,
  52,
  0,
  -68,
  -105,
  -64,
  -49,
  124,
  -42,
  72,
  125,
  0,
  -78,
  43,
  66,
  91,
  -95,
  83,
  69,
  -80,
  38,
  111,
  -63,
  36,
  63,
  43,
  122,
  6,
  112,
  23,
  120,
  -65,
  -43,
  3,
  0,
  115,
  75,
  127,
  91,
  -75,
  9,
  13,
  35,
  0,
  -68,
  -26,
  95,
  -128,
  -62,
  127,
  0,
  -14,
  -19,
  -83,
  -86,
  -4,
  -15,
  79,
  -73,
  0,
  2,
  60,
  102,
  53,
  65,
  -40,
  0,
  -83,
  2,
  125,
  -9,
  -19,
  -128,
  31,
  88,
  0,
  -92,
  59,
  36,
  -16,
  6,
  28,
  -34,
  -96,
  88,
  -21,
  -50,
  -28,
  -40,
  -46,
  -81,
  20,
  45,
  -58,
  -48,
  41,
  -26,
  39,
  0,
  -68,
  31,
  78,
  125,
  -61,
  -34,
  93,
  -119,
  0,
  107,
  -71,
  103,
  100,
  103,
  -27,
  93,
  -70,
  -60,
  31,
  12,
  58,
  104,
  -95,
  51,
  0,
  49,
  42,
  -64,
  -80,
  87,
  -88,
  0,
  -127,
  -38,
  -6,
  5
};

// Bias: net.2.bias (Shape: [16] -> Flattened Size: 16)
const float net_2_bias[16] = {
  0.03642261f,
  0.07892380f,
  0.02054599f,
  0.02310698f,
  0.19855033f,
  -0.12643997f,
  0.02594381f,
  -0.06715178f,
  0.19088160f,
  0.13601804f,
  -0.02549520f,
  -0.05046893f,
  -0.07076006f,
  0.15062031f,
  0.01009817f,
  0.14415507f
};

// Weight: net.4.weight (Shape: [2, 16] -> Flattened Size: 32)
const int8_t net_4_weight[32] = {
  97,
  127,
  115,
  -86,
  60,
  -39,
  75,
  -8,
  40,
  -95,
  -121,
  57,
  35,
  29,
  92,
  -50,
  0,
  0,
  0,
  0,
  0,
  0,
  0,
  0,
  0,
  -3,
  0,
  0,
  0,
  0,
  0,
  0
};

// Bias: net.4.bias (Shape: [2] -> Flattened Size: 2)
const float net_4_bias[2] = {
  -0.22638890f,
  -0.00000000f
};